{"weights": [[0.0005828849594977511], [0.005159592987428974], [0.004086977121547498], [0.012878829466188244], [0.0009288402788613927], [-0.0004795682561639399], [-0.0009166260680103835], [0.008567895710157024], [-0.0037836787251104525], [-0.014789209950904809], [-0.0012448677477115493], [-0.006227572133745687], [0.0018984270841747237], [-0.005898867349803274], [0.0004564591913787345], [-0.0017077523894754795], [0.006304997999266827], [0.016718644971588686], [-0.003946467183755205], [-0.008509307422896193], [0.0034590603192455045], [0.0020448079113735322], [0.0062078270111940205], [0.0152943034215116], [0.007838805145035493], [-0.0025974871154664063], [-0.009075235110372793], [0.015575671914266285], [-0.0014570591548799673], [-0.0006216995184771236], [-0.012074594196391803], [-0.01234179235157819], [0.0008365613289067556], [0.009652603996526217], [-0.000652772206336173], [0.008292510124204937], [0.0164321498745918], [0.011581651019069977], [0.002483013403211636], [0.00644284584718718], [-0.014240805134128173], [0.006118287341696122], [0.012631533924446731], [-0.0009676204323762363], [0.012396835186883557], [0.01320264844973505], [0.0011681921034245625], [-0.004167022284241539], [0.010076789739567165], [-0.01294801966490717], [0.004518322990648036], [0.010722753754629067], [0.006296800574819824], [-0.004562982356562622], [-0.007165850419890384], [0.021190127131235005], [0.005002762470808792], [-0.0010558158741912152], [0.00776044150923163], [-0.013820222732237094], [0.0064955627911631834], [0.000983205391997605], [-0.0008345088820930788], [-0.00950224394776054], [0.0050172769750348465], [0.010619462007872123], [-0.019533602615374925], [0.0004332351602380838], [0.004813827039433482], [0.008364062967524118], [-0.01746562878131211], [0.0017658272889151485], [0.0017071456036372465], [-0.01907350617754822], [0.00785804518933414], [-0.010264688259540541], [0.007547769119007773], [0.01982566973727917], [0.0072306399381544895], [-0.007384815713703056], [-0.0048591810763958885], [-0.02288322286027771], [-0.003042447150850289], [0.004697236616386974], [0.0050694266221606], [-0.008762575873226767], [0.002579099769331831], [-0.011593994059396446], [0.008228122307779388], [-0.022388850276290003], [-0.0013194205943513329], [0.013380147979075455], [0.006537851756627684], [-0.0037591989885943583], [0.008606268010294342], [-0.002914360896478872], [-0.0017169944584354644], [-0.011920877589726056], [0.012334006934674221], [0.006067810830408949]], "biases": [[9.820942171053836e-06]], "parameter_count": 101}