{
  "metadata": {
    "name": "N\u00facleo C.A- Razonbilstro",
    "version": "1.0.0",
    "created": "2025-05-25 09:51:04",
    "description": "Simple SLM Neural Model for text processing"
  },
  "config": {
    "input_size": 10,
    "output_size": 5,
    "learning_rate": 0.01,
    "activation": "sigmoid",
    "epoch_count": 500
  },
  "weights": [
    [
      -0.6223077120112639,
      0.2661542668106878,
      -0.05177563921268695,
      -0.22022276631686435,
      -0.0317113007601814
    ],
    [
      -0.42233659464300405,
      0.013732543690192079,
      -0.15457379018281003,
      -0.43407168795568535,
      0.09460476341309561
    ],
    [
      -0.37058460230057355,
      0.08142887308915736,
      -0.3338129019491628,
      -0.5803282495757038,
      0.08314837276198163
    ],
    [
      -0.08673246500937262,
      -0.22346329584511965,
      -0.20862002620108044,
      -0.5893183285505483,
      0.24774759253445525
    ],
    [
      -0.14833944718255157,
      -0.2695047923564033,
      -0.23328619608199877,
      -0.5067103855658027,
      0.11490979495360441
    ],
    [
      -0.20649412561035538,
      -0.05437670611460701,
      -0.4261191437815898,
      0.13615050144447793,
      -0.29490541017272076
    ],
    [
      -0.0026610522024200956,
      -0.3630372381540149,
      -0.3640550738422252,
      0.20783280003549606,
      -0.602561435708514
    ],
    [
      -0.052655009964571745,
      -0.21941016750651832,
      -0.13827895069405235,
      0.05071498224113153,
      -0.40290634877574966
    ],
    [
      0.020142306219127954,
      -0.5690319126035528,
      -0.1273404227817702,
      0.054835293179635224,
      -0.35542381257148475
    ],
    [
      0.14026357662569236,
      -0.5181235167953587,
      0.018378237385585736,
      0.138497058210514,
      -0.529567726812171
    ]
  ],
  "bias": [
    -0.3052221151401234,
    -0.34395599308944125,
    -0.31284769405837015,
    -0.35294005412904766,
    -0.374713670305721
  ],
  "error_history": [
    0.1220949297575094,
    0.12205505155307535,
    0.12201525141921006,
    0.12197552904792279,
    0.12193588413292474,
    0.12189631636961469,
    0.12185682545506511,
    0.12181741108800795,
    0.12177807296882118,
    0.12173881079951494
  ]
}