{
  "metadata": {
    "name": "N\u00facleo C.A- Razonbilstro",
    "version": "1.0.0",
    "created": "2025-05-27 12:47:03",
    "description": "Simple SLM Neural Model for text processing"
  },
  "config": {
    "input_size": 10,
    "output_size": 5,
    "learning_rate": 0.01,
    "activation": "sigmoid",
    "epoch_count": 500
  },
  "weights": [
    [
      -0.38725133603472994,
      0.030853772457014726,
      -0.20408662776570555,
      -0.4094271847218971,
      0.1524998143000726
    ],
    [
      -0.4804987333306555,
      -0.05036783680854861,
      -0.24943189655863032,
      -0.3694244248985527,
      -0.010820061568320754
    ],
    [
      -0.327666475343138,
      0.015493379772318695,
      -0.20626415628501465,
      -0.2989692343225669,
      0.11174422744517212
    ],
    [
      -0.22592623182765778,
      -0.09508291642818659,
      -0.22359953904765578,
      -0.6023120501536554,
      0.18812490818241856
    ],
    [
      -0.12332477284997814,
      -0.14492806937787273,
      -0.1712244234868975,
      -0.4677623952605736,
      0.09855402638901069
    ],
    [
      -0.18230187812287643,
      -0.11939166855813686,
      -0.12452929938917713,
      0.3296324161332308,
      -0.4427594929495843
    ],
    [
      -0.06610200942993102,
      -0.19944244885900167,
      -0.2704029852505858,
      0.27026224327168225,
      -0.4624964326592572
    ],
    [
      0.02130373980506803,
      -0.17253854395886836,
      -0.22020874775539345,
      0.22965314012167928,
      -0.41690519121143305
    ],
    [
      0.148858301985972,
      -0.4548555475220769,
      -0.21337636480009933,
      -0.01459695081526639,
      -0.3540336584228163
    ],
    [
      0.20523392926011566,
      -0.6187860179166508,
      -0.12399777587878007,
      0.002720967906200464,
      -0.614908032950297
    ]
  ],
  "bias": [
    -0.4724139440007665,
    -0.3595579050827871,
    -0.3099331844118449,
    -0.556532892327056,
    -0.35536814699246816
  ],
  "error_history": [
    0.12306964040935116,
    0.12302995941393784,
    0.1229903559362195,
    0.12295082965184204,
    0.12291138023858403,
    0.12287200737633423,
    0.12283271074706958,
    0.12279349003483386,
    0.12275434492571595,
    0.12271527510782924
  ]
}